digraph Tree {
node [shape=box, style="filled, rounded", color="black", fontname=helvetica] ;
edge [fontname=helvetica] ;
0 [label="cp <= 3.5\nentropy = 0.988\nsamples = 457\nvalue = [271.7, 210.0]\nclass = No Enfermo", fillcolor="#f9e2d2"] ;
1 [label="PlaceEncoded <= 0.5\nentropy = 0.709\nsamples = 230\nvalue = [200.2, 48.0]\nclass = No Enfermo", fillcolor="#eb9f68"] ;
0 -> 1 [labeldistance=2.5, labelangle=45, headlabel="True"] ;
2 [label="exang <= 0.5\nentropy = 0.54\nsamples = 171\nvalue = [162.8, 23.0]\nclass = No Enfermo", fillcolor="#e99355"] ;
1 -> 2 ;
3 [label="cp <= 1.5\nentropy = 0.416\nsamples = 153\nvalue = [152.9, 14.0]\nclass = No Enfermo", fillcolor="#e78d4b"] ;
2 -> 3 ;
4 [label="entropy = 0.927\nsamples = 11\nvalue = [7.7, 4.0]\nclass = No Enfermo", fillcolor="#f3c2a0"] ;
3 -> 4 ;
5 [label="oldpeakEncoded <= 1.5\nentropy = 0.345\nsamples = 142\nvalue = [145.2, 10.0]\nclass = No Enfermo", fillcolor="#e78a47"] ;
3 -> 5 ;
6 [label="entropy = 0.256\nsamples = 127\nvalue = [133.1, 6.0]\nclass = No Enfermo", fillcolor="#e68742"] ;
5 -> 6 ;
7 [label="entropy = 0.809\nsamples = 15\nvalue = [12.1, 4.0]\nclass = No Enfermo", fillcolor="#eeab7a"] ;
5 -> 7 ;
8 [label="entropy = 0.998\nsamples = 18\nvalue = [9.9, 9.0]\nclass = No Enfermo", fillcolor="#fdf4ed"] ;
2 -> 8 ;
9 [label="PlaceEncoded <= 1.5\nentropy = 0.971\nsamples = 59\nvalue = [37.4, 25.0]\nclass = No Enfermo", fillcolor="#f6d5bd"] ;
1 -> 9 ;
10 [label="entropy = 0.954\nsamples = 17\nvalue = [6.6, 11.0]\nclass = Enfermo", fillcolor="#b0d8f5"] ;
9 -> 10 ;
11 [label="cholEncoded <= 1.5\nentropy = 0.896\nsamples = 42\nvalue = [30.8, 14.0]\nclass = No Enfermo", fillcolor="#f1ba93"] ;
9 -> 11 ;
12 [label="entropy = 0.734\nsamples = 18\nvalue = [15.4, 4.0]\nclass = No Enfermo", fillcolor="#eca26c"] ;
11 -> 12 ;
13 [label="restecg <= 0.5\nentropy = 0.967\nsamples = 24\nvalue = [15.4, 10.0]\nclass = No Enfermo", fillcolor="#f6d3ba"] ;
11 -> 13 ;
14 [label="entropy = 0.691\nsamples = 10\nvalue = [8.8, 2.0]\nclass = No Enfermo", fillcolor="#eb9e66"] ;
13 -> 14 ;
15 [label="entropy = 0.993\nsamples = 14\nvalue = [6.6, 8.0]\nclass = Enfermo", fillcolor="#dceefa"] ;
13 -> 15 ;
16 [label="exang <= 0.5\nentropy = 0.889\nsamples = 227\nvalue = [71.5, 162.0]\nclass = Enfermo", fillcolor="#90c8f0"] ;
0 -> 16 [labeldistance=2.5, labelangle=-45, headlabel="False"] ;
17 [label="cholEncoded <= 0.5\nentropy = 0.997\nsamples = 99\nvalue = [48.4, 55.0]\nclass = Enfermo", fillcolor="#e7f3fc"] ;
16 -> 17 ;
18 [label="PlaceEncoded <= 1.5\nentropy = 0.708\nsamples = 28\nvalue = [5.5, 23.0]\nclass = Enfermo", fillcolor="#68b4eb"] ;
17 -> 18 ;
19 [label="thalachEncoded <= 2.5\nentropy = 0.497\nsamples = 20\nvalue = [2.2, 18.0]\nclass = Enfermo", fillcolor="#51a9e8"] ;
18 -> 19 ;
20 [label="entropy = 0.0\nsamples = 7\nvalue = [0, 7]\nclass = Enfermo", fillcolor="#399de5"] ;
19 -> 20 ;
21 [label="entropy = 0.65\nsamples = 13\nvalue = [2.2, 11.0]\nclass = Enfermo", fillcolor="#61b1ea"] ;
19 -> 21 ;
22 [label="entropy = 0.97\nsamples = 8\nvalue = [3.3, 5.0]\nclass = Enfermo", fillcolor="#bcdef6"] ;
18 -> 22 ;
23 [label="oldpeakEncoded <= 2.5\nentropy = 0.985\nsamples = 71\nvalue = [42.9, 32.0]\nclass = No Enfermo", fillcolor="#f8dfcd"] ;
17 -> 23 ;
24 [label="restecg <= 0.5\nentropy = 0.947\nsamples = 62\nvalue = [41.8, 24.0]\nclass = No Enfermo", fillcolor="#f4c9ab"] ;
23 -> 24 ;
25 [label="entropy = 0.99\nsamples = 43\nvalue = [25.3, 20.0]\nclass = No Enfermo", fillcolor="#fae5d6"] ;
24 -> 25 ;
26 [label="entropy = 0.712\nsamples = 19\nvalue = [16.5, 4.0]\nclass = No Enfermo", fillcolor="#eba069"] ;
24 -> 26 ;
27 [label="entropy = 0.532\nsamples = 9\nvalue = [1.1, 8.0]\nclass = Enfermo", fillcolor="#54aae9"] ;
23 -> 27 ;
28 [label="Sex <= 0.5\nentropy = 0.675\nsamples = 128\nvalue = [23.1, 107.0]\nclass = Enfermo", fillcolor="#64b2eb"] ;
16 -> 28 ;
29 [label="entropy = 0.975\nsamples = 13\nvalue = [5.5, 8.0]\nclass = Enfermo", fillcolor="#c1e0f7"] ;
28 -> 29 ;
30 [label="PlaceEncoded <= 1.5\nentropy = 0.612\nsamples = 115\nvalue = [17.6, 99.0]\nclass = Enfermo", fillcolor="#5caeea"] ;
28 -> 30 ;
31 [label="cholEncoded <= 2.5\nentropy = 0.45\nsamples = 81\nvalue = [7.7, 74.0]\nclass = Enfermo", fillcolor="#4ea7e8"] ;
30 -> 31 ;
32 [label="entropy = 0.506\nsamples = 68\nvalue = [7.7, 61.0]\nclass = Enfermo", fillcolor="#52a9e8"] ;
31 -> 32 ;
33 [label="entropy = 0.0\nsamples = 13\nvalue = [0, 13]\nclass = Enfermo", fillcolor="#399de5"] ;
31 -> 33 ;
34 [label="trestbpsEncoded <= 2.5\nentropy = 0.86\nsamples = 34\nvalue = [9.9, 25.0]\nclass = Enfermo", fillcolor="#87c4ef"] ;
30 -> 34 ;
35 [label="entropy = 0.768\nsamples = 24\nvalue = [5.5, 19.0]\nclass = Enfermo", fillcolor="#72b9ed"] ;
34 -> 35 ;
36 [label="entropy = 0.983\nsamples = 10\nvalue = [4.4, 6.0]\nclass = Enfermo", fillcolor="#cae5f8"] ;
34 -> 36 ;
}