digraph Tree {
node [shape=box, style="filled, rounded", color="black", fontname=helvetica] ;
edge [fontname=helvetica] ;
0 [label="cp <= 3.5\nentropy = 0.994\nsamples = 365\nvalue = [199, 166]\nclass = No Enfermo", fillcolor="#fbeade"] ;
1 [label="exang <= 0.5\nentropy = 0.722\nsamples = 185\nvalue = [148, 37]\nclass = No Enfermo", fillcolor="#eca06a"] ;
0 -> 1 [labeldistance=2.5, labelangle=45, headlabel="True"] ;
2 [label="Place <= 0.5\nentropy = 0.592\nsamples = 154\nvalue = [132, 22]\nclass = No Enfermo", fillcolor="#e9965a"] ;
1 -> 2 ;
3 [label="cp <= 1.5\nentropy = 0.459\nsamples = 124\nvalue = [112, 12]\nclass = No Enfermo", fillcolor="#e88e4e"] ;
2 -> 3 ;
4 [label="entropy = 0.971\nsamples = 10\nvalue = [6, 4]\nclass = No Enfermo", fillcolor="#f6d5bd"] ;
3 -> 4 ;
5 [label="entropy = 0.367\nsamples = 114\nvalue = [106, 8]\nclass = No Enfermo", fillcolor="#e78b48"] ;
3 -> 5 ;
6 [label="thalachEncoded <= 2.5\nentropy = 0.918\nsamples = 30\nvalue = [20, 10]\nclass = No Enfermo", fillcolor="#f2c09c"] ;
2 -> 6 ;
7 [label="entropy = 0.954\nsamples = 8\nvalue = [3, 5]\nclass = Enfermo", fillcolor="#b0d8f5"] ;
6 -> 7 ;
8 [label="entropy = 0.773\nsamples = 22\nvalue = [17, 5]\nclass = No Enfermo", fillcolor="#eda673"] ;
6 -> 8 ;
9 [label="trestbpsEncoded <= 2.5\nentropy = 0.999\nsamples = 31\nvalue = [16, 15]\nclass = No Enfermo", fillcolor="#fdf7f3"] ;
1 -> 9 ;
10 [label="cholEncoded <= 1.5\nentropy = 0.983\nsamples = 26\nvalue = [15, 11]\nclass = No Enfermo", fillcolor="#f8ddca"] ;
9 -> 10 ;
11 [label="entropy = 0.971\nsamples = 5\nvalue = [2, 3]\nclass = Enfermo", fillcolor="#bddef6"] ;
10 -> 11 ;
12 [label="entropy = 0.959\nsamples = 21\nvalue = [13, 8]\nclass = No Enfermo", fillcolor="#f5cfb3"] ;
10 -> 12 ;
13 [label="entropy = 0.722\nsamples = 5\nvalue = [1, 4]\nclass = Enfermo", fillcolor="#6ab6ec"] ;
9 -> 13 ;
14 [label="exang <= 0.5\nentropy = 0.86\nsamples = 180\nvalue = [51, 129]\nclass = Enfermo", fillcolor="#87c4ef"] ;
0 -> 14 [labeldistance=2.5, labelangle=-45, headlabel="False"] ;
15 [label="Place <= 1.5\nentropy = 0.998\nsamples = 72\nvalue = [34, 38]\nclass = Enfermo", fillcolor="#eaf5fc"] ;
14 -> 15 ;
16 [label="Sex <= 0.5\nentropy = 0.978\nsamples = 58\nvalue = [34, 24]\nclass = No Enfermo", fillcolor="#f7dac5"] ;
15 -> 16 ;
17 [label="entropy = 0.0\nsamples = 7\nvalue = [7, 0]\nclass = No Enfermo", fillcolor="#e58139"] ;
16 -> 17 ;
18 [label="entropy = 0.998\nsamples = 51\nvalue = [27, 24]\nclass = No Enfermo", fillcolor="#fcf1e9"] ;
16 -> 18 ;
19 [label="entropy = 0.0\nsamples = 14\nvalue = [0, 14]\nclass = Enfermo", fillcolor="#399de5"] ;
15 -> 19 ;
20 [label="Sex <= 0.5\nentropy = 0.628\nsamples = 108\nvalue = [17, 91]\nclass = Enfermo", fillcolor="#5eafea"] ;
14 -> 20 ;
21 [label="entropy = 0.961\nsamples = 13\nvalue = [5, 8]\nclass = Enfermo", fillcolor="#b5daf5"] ;
20 -> 21 ;
22 [label="trestbpsEncoded <= 3.5\nentropy = 0.547\nsamples = 95\nvalue = [12, 83]\nclass = Enfermo", fillcolor="#56abe9"] ;
20 -> 22 ;
23 [label="entropy = 0.579\nsamples = 87\nvalue = [12, 75]\nclass = Enfermo", fillcolor="#59ade9"] ;
22 -> 23 ;
24 [label="entropy = 0.0\nsamples = 8\nvalue = [0, 8]\nclass = Enfermo", fillcolor="#399de5"] ;
22 -> 24 ;
}