digraph Tree {
node [shape=box, style="filled, rounded", color="black", fontname=helvetica] ;
edge [fontname=helvetica] ;
0 [label="cp <= 3.5\nentropy = 0.993\nsamples = 365\nvalue = [200, 165]\nclass = No Enfermo", fillcolor="#fae9dc"] ;
1 [label="Place <= 0.5\nentropy = 0.759\nsamples = 187\nvalue = [146, 41]\nclass = No Enfermo", fillcolor="#eca471"] ;
0 -> 1 [labeldistance=2.5, labelangle=45, headlabel="True"] ;
2 [label="exang <= 0.5\nentropy = 0.573\nsamples = 140\nvalue = [121, 19]\nclass = No Enfermo", fillcolor="#e99558"] ;
1 -> 2 ;
3 [label="cp <= 1.5\nentropy = 0.432\nsamples = 124\nvalue = [113, 11]\nclass = No Enfermo", fillcolor="#e88d4c"] ;
2 -> 3 ;
4 [label="entropy = 0.954\nsamples = 8\nvalue = [5, 3]\nclass = No Enfermo", fillcolor="#f5cdb0"] ;
3 -> 4 ;
5 [label="entropy = 0.362\nsamples = 116\nvalue = [108, 8]\nclass = No Enfermo", fillcolor="#e78a48"] ;
3 -> 5 ;
6 [label="AgeEncoded <= 1.5\nentropy = 1.0\nsamples = 16\nvalue = [8, 8]\nclass = No Enfermo", fillcolor="#ffffff"] ;
2 -> 6 ;
7 [label="entropy = 0.918\nsamples = 6\nvalue = [4, 2]\nclass = No Enfermo", fillcolor="#f2c09c"] ;
6 -> 7 ;
8 [label="entropy = 0.971\nsamples = 10\nvalue = [4, 6]\nclass = Enfermo", fillcolor="#bddef6"] ;
6 -> 8 ;
9 [label="Place <= 1.5\nentropy = 0.997\nsamples = 47\nvalue = [25, 22]\nclass = No Enfermo", fillcolor="#fcf0e7"] ;
1 -> 9 ;
10 [label="cholEncoded <= 1.5\nentropy = 0.952\nsamples = 35\nvalue = [22, 13]\nclass = No Enfermo", fillcolor="#f4cbae"] ;
9 -> 10 ;
11 [label="entropy = 0.863\nsamples = 14\nvalue = [10, 4]\nclass = No Enfermo", fillcolor="#efb388"] ;
10 -> 11 ;
12 [label="entropy = 0.985\nsamples = 21\nvalue = [12, 9]\nclass = No Enfermo", fillcolor="#f8e0ce"] ;
10 -> 12 ;
13 [label="trestbpsEncoded <= 1.5\nentropy = 0.811\nsamples = 12\nvalue = [3, 9]\nclass = Enfermo", fillcolor="#7bbeee"] ;
9 -> 13 ;
14 [label="entropy = 0.592\nsamples = 7\nvalue = [1, 6]\nclass = Enfermo", fillcolor="#5aade9"] ;
13 -> 14 ;
15 [label="entropy = 0.971\nsamples = 5\nvalue = [2, 3]\nclass = Enfermo", fillcolor="#bddef6"] ;
13 -> 15 ;
16 [label="Place <= 1.5\nentropy = 0.885\nsamples = 178\nvalue = [54, 124]\nclass = Enfermo", fillcolor="#8fc8f0"] ;
0 -> 16 [labeldistance=2.5, labelangle=-45, headlabel="False"] ;
17 [label="fbs <= 0.5\nentropy = 0.939\nsamples = 146\nvalue = [52, 94]\nclass = Enfermo", fillcolor="#a7d3f3"] ;
16 -> 17 ;
18 [label="thalachEncoded <= 2.5\nentropy = 0.996\nsamples = 65\nvalue = [35, 30]\nclass = No Enfermo", fillcolor="#fbede3"] ;
17 -> 18 ;
19 [label="entropy = 0.99\nsamples = 34\nvalue = [15, 19]\nclass = Enfermo", fillcolor="#d5eafa"] ;
18 -> 19 ;
20 [label="entropy = 0.938\nsamples = 31\nvalue = [20, 11]\nclass = No Enfermo", fillcolor="#f3c6a6"] ;
18 -> 20 ;
21 [label="Sex <= 0.5\nentropy = 0.741\nsamples = 81\nvalue = [17, 64]\nclass = Enfermo", fillcolor="#6eb7ec"] ;
17 -> 21 ;
22 [label="entropy = 0.994\nsamples = 11\nvalue = [5, 6]\nclass = Enfermo", fillcolor="#deeffb"] ;
21 -> 22 ;
23 [label="entropy = 0.661\nsamples = 70\nvalue = [12, 58]\nclass = Enfermo", fillcolor="#62b1ea"] ;
21 -> 23 ;
24 [label="thalachEncoded <= 2.5\nentropy = 0.337\nsamples = 32\nvalue = [2, 30]\nclass = Enfermo", fillcolor="#46a4e7"] ;
16 -> 24 ;
25 [label="entropy = 0.0\nsamples = 20\nvalue = [0, 20]\nclass = Enfermo", fillcolor="#399de5"] ;
24 -> 25 ;
26 [label="thalachEncoded <= 3.5\nentropy = 0.65\nsamples = 12\nvalue = [2, 10]\nclass = Enfermo", fillcolor="#61b1ea"] ;
24 -> 26 ;
27 [label="entropy = 0.65\nsamples = 6\nvalue = [1, 5]\nclass = Enfermo", fillcolor="#61b1ea"] ;
26 -> 27 ;
28 [label="entropy = 0.65\nsamples = 6\nvalue = [1, 5]\nclass = Enfermo", fillcolor="#61b1ea"] ;
26 -> 28 ;
}